{"weights": [[0.0, 0.15708272609220467, -0.19094924201557706, 0.4012971273211468, 0.5558887490166275, -0.77607484718201, -0.44491020337944864, -0.7658303266028249, -0.2981125094287043, -0.553006209548866, 0.04832164124255554, 0.0037458138522169226, -0.09528950411890239, 0.05026945755639889, 0.09630538182607168, -0.10220749015914925, 0.08361669703944133, -0.37284960454745986, -0.20276460266835084, -0.2073336936969856, 0.12425114966939803, -0.040113948957633816, -0.08582882755243335, 0.2092572302170512, -0.12048573895760309, 0.060415740919246785, 0.04460790589992457, -0.12714553707757031, -0.09612842681037159, -0.03467688930197865, -0.03521309757736016, 0.003759941858527432, -0.08244726480720017, 0.11904272797588313, -0.17927596377961427, 0.11674024597903321, 0.13037661608318557, -0.0025525206118062194, -0.009421001757959457, 0.0866570335324054, 0.030807897206001134, 0.05098480136908191, 0.12611765590844173, -0.01629929496848702, 0.02937888978771036, 0.020659005811152237, 0.06173014004664351, 0.023088304120468015, 0.03731450806723996, 0.06079096034244913, -0.021382775282511368, -0.02463065218007006, -0.08290414704857366, -0.022961089405623997, 0.08133833084370104, 0.038788299313706746, 0.12462408925256789, -0.017426846666335205, 0.04094664409862453, 0.03244158964636265, 0.09151182121019874, -0.009448768797055779, -0.09883989245225369, -0.027296489393916074, 0.06291685133357322, 0.13749025295044495, 0.06993238780598737, -0.00507519789781008, 0.028770374073509946, -0.0357072781004254, -0.003238681889141559, 0.142080120719451, -0.03145633055494676, -0.07189657918418588, -0.1303748792063616, 0.1825928391407861, 0.11674874125660105, -0.01149404631673652, 0.0067951571506561365, -0.00829900237009698, -0.05903500197300775, 0.06372786074959966, 0.076709714670722, 0.08475170476529119, 0.015681756265686686, -0.01443754047424016, -0.06240882705581163, -0.11854083267970872, -0.008772475539192442, 0.0103378285242135, -0.03887201102509627, -0.13519832006191213, -0.1419699765365024, -0.08838715066997149, -0.03178036027155173, -0.11185017904746383, -0.029724933914869495, -0.0438185563397493, -0.1574837809875705, 0.04306552736617904, 0.0856105007319518, 0.018966597138884895, 0.013841710985301153, -0.06659458653285162, 0.018684863385704104, -0.22247980800662084, -0.15466855046803363, 0.03454156250965943, 0.09592413563185587, 0.024459161026069404, 0.1602592076178254, 0.09521901537931576, 0.1852992840948236, -0.08655362956294574, 0.002399919516010693, -0.03168347488090917, 0.23211049820373553, 0.06888339882747126, 0.5638789394642846, 0.32990944829390495, 0.5978387470636302, 0.43544645466833465, -0.038701611346701914, -0.10736814757328639, 0.6677588198983191, -0.4706519670167825, -0.5093015241308654, 0.25469350703903226]], "bias": [-0.26337916966336933]}